digraph Tree {
0 [label="debtlimit <= 6200.0000\nmse = 2.88754182301\nsamples = 289", shape="box"] ;
1 [label="debtlimit <= 5725.0000\nmse = 0.969109441175\nsamples = 141", shape="box"] ;
0 -> 1 ;
2 [label="TotalOutstanding <= 2464.7666\nmse = 0.67169341166\nsamples = 82", shape="box"] ;
1 -> 2 ;
3 [label="deficit <= -267229.5625\nmse = 0.244683471074\nsamples = 22", shape="box"] ;
2 -> 3 ;
4 [label="CPI <= 3.0192\nmse = 0.035481\nsamples = 10", shape="box"] ;
3 -> 4 ;
5 [label="mse = 0.0321\nsamples = 5\nvalue = [ 7.25]", shape="box"] ;
4 -> 5 ;
6 [label="mse = 0.0086\nsamples = 5\nvalue = [ 7.496]", shape="box"] ;
4 -> 6 ;
7 [label="rgdp <= -0.3000\nmse = 0.0897076388888\nsamples = 12", shape="box"] ;
3 -> 7 ;
8 [label="mse = 0.0077\nsamples = 6\nvalue = [ 8.04]", shape="box"] ;
7 -> 8 ;
9 [label="mse = 0.1039\nsamples = 6\nvalue = [ 8.40833333]", shape="box"] ;
7 -> 9 ;
10 [label="rgdp <= 3.4568\nmse = 0.371280305556\nsamples = 60", shape="box"] ;
2 -> 10 ;
11 [label="unemployment <= 6.1500\nmse = 0.27881024\nsamples = 25", shape="box"] ;
10 -> 11 ;
12 [label="mse = 0.3148\nsamples = 12\nvalue = [ 6.4025]", shape="box"] ;
11 -> 12 ;
13 [label="mse = 0.1063\nsamples = 13\nvalue = [ 5.86384615]", shape="box"] ;
11 -> 13 ;
14 [label="prox2ceiling <= 12.5000\nmse = 0.231727836735\nsamples = 35", shape="box"] ;
10 -> 14 ;
15 [label="mse = 0.0467\nsamples = 19\nvalue = [ 6.57105263]", shape="box"] ;
14 -> 15 ;
16 [label="mse = 0.2841\nsamples = 16\nvalue = [ 7.12625]", shape="box"] ;
14 -> 16 ;
17 [label="unemployment <= 4.1500\nmse = 0.285076127549\nsamples = 59", shape="box"] ;
1 -> 17 ;
18 [label="rgdp <= 3.8841\nmse = 0.121611555556\nsamples = 15", shape="box"] ;
17 -> 18 ;
19 [label="mse = 0.0469\nsamples = 5\nvalue = [ 5.666]", shape="box"] ;
18 -> 19 ;
20 [label="deficit <= 176315.8750\nmse = 0.047584\nsamples = 10", shape="box"] ;
18 -> 20 ;
21 [label="mse = 0.0571\nsamples = 5\nvalue = [ 6.32]", shape="box"] ;
20 -> 21 ;
22 [label="mse = 0.0265\nsamples = 5\nvalue = [ 6.168]", shape="box"] ;
20 -> 22 ;
23 [label="TotalOutstanding <= 3314.4688\nmse = 0.206173140496\nsamples = 44", shape="box"] ;
17 -> 23 ;
24 [label="unemployment <= 4.3500\nmse = 0.143181152344\nsamples = 32", shape="box"] ;
23 -> 24 ;
25 [label="mse = 0.1609\nsamples = 12\nvalue = [ 5.39666667]", shape="box"] ;
24 -> 25 ;
26 [label="mse = 0.0719\nsamples = 20\nvalue = [ 4.9945]", shape="box"] ;
24 -> 26 ;
27 [label="CPI <= 1.7937\nmse = 0.0632243055555\nsamples = 12", shape="box"] ;
23 -> 27 ;
28 [label="mse = 0.0088\nsamples = 7\nvalue = [ 5.62285714]", shape="box"] ;
27 -> 28 ;
29 [label="mse = 0.0350\nsamples = 5\nvalue = [ 6.046]", shape="box"] ;
27 -> 29 ;
30 [label="TotalOutstanding <= 5195.0000\nmse = 0.948800456538\nsamples = 148", shape="box"] ;
0 -> 30 ;
31 [label="unemployment <= 4.8500\nmse = 0.170920463511\nsamples = 78", shape="box"] ;
30 -> 31 ;
32 [label="prox2ceiling <= 12.5000\nmse = 0.0582994328922\nsamples = 23", shape="box"] ;
31 -> 32 ;
33 [label="CPI <= 2.7540\nmse = 0.040512654321\nsamples = 18", shape="box"] ;
32 -> 33 ;
34 [label="mse = 0.0232\nsamples = 11\nvalue = [ 4.75454545]", shape="box"] ;
33 -> 34 ;
35 [label="mse = 0.0267\nsamples = 7\nvalue = [ 4.49571429]", shape="box"] ;
33 -> 35 ;
36 [label="mse = 0.0081\nsamples = 5\nvalue = [ 5.036]", shape="box"] ;
32 -> 36 ;
37 [label="rgdp <= 2.9229\nmse = 0.104184595041\nsamples = 55", shape="box"] ;
31 -> 37 ;
38 [label="deficit <= -242258.2812\nmse = 0.11140256\nsamples = 25", shape="box"] ;
37 -> 38 ;
39 [label="mse = 0.0389\nsamples = 16\nvalue = [ 3.759375]", shape="box"] ;
38 -> 39 ;
40 [label="mse = 0.1110\nsamples = 9\nvalue = [ 4.20888889]", shape="box"] ;
38 -> 40 ;
41 [label="CPI <= 2.8835\nmse = 0.0404112222222\nsamples = 30", shape="box"] ;
37 -> 41 ;
42 [label="mse = 0.0244\nsamples = 15\nvalue = [ 4.18266667]", shape="box"] ;
41 -> 42 ;
43 [label="mse = 0.0384\nsamples = 15\nvalue = [ 4.37266667]", shape="box"] ;
41 -> 43 ;
44 [label="TotalOutstanding <= 8697.5000\nmse = 0.419511204082\nsamples = 70", shape="box"] ;
30 -> 44 ;
45 [label="deficit <= -1328564.2500\nmse = 0.1588359375\nsamples = 32", shape="box"] ;
44 -> 45 ;
46 [label="CPI <= 2.0725\nmse = 0.025669\nsamples = 10", shape="box"] ;
45 -> 46 ;
47 [label="mse = 0.0057\nsamples = 5\nvalue = [ 3.44]", shape="box"] ;
46 -> 47 ;
48 [label="mse = 0.0070\nsamples = 5\nvalue = [ 3.718]", shape="box"] ;
46 -> 48 ;
49 [label="deficit <= -1054887.3750\nmse = 0.134748140496\nsamples = 22", shape="box"] ;
45 -> 49 ;
50 [label="mse = 0.1165\nsamples = 17\nvalue = [ 3.16058824]", shape="box"] ;
49 -> 50 ;
51 [label="mse = 0.0413\nsamples = 5\nvalue = [ 2.712]", shape="box"] ;
49 -> 51 ;
52 [label="deficit <= -798345.5000\nmse = 0.169836080332\nsamples = 38", shape="box"] ;
44 -> 52 ;
53 [label="TotalOutstanding <= 9591.0000\nmse = 0.0365770661157\nsamples = 22", shape="box"] ;
52 -> 53 ;
54 [label="mse = 0.0121\nsamples = 9\nvalue = [ 2.06444444]", shape="box"] ;
53 -> 54 ;
55 [label="mse = 0.0180\nsamples = 13\nvalue = [ 1.77]", shape="box"] ;
53 -> 55 ;
56 [label="CPI <= 1.6128\nmse = 0.02345\nsamples = 16", shape="box"] ;
52 -> 56 ;
57 [label="mse = 0.0072\nsamples = 8\nvalue = [ 2.76]", shape="box"] ;
56 -> 57 ;
58 [label="mse = 0.0132\nsamples = 8\nvalue = [ 2.53]", shape="box"] ;
56 -> 58 ;
}